{"conv1.weight": [[[[-0.5710914134979248, -0.2882850766181946, 0.5799142718315125], [-0.6937978863716125, 0.002312049502506852, 0.7402783036231995], [-0.05107511579990387, 0.671916663646698, 0.354553759098053]]], [[[0.7528933882713318, -0.47265198826789856, -0.6488078832626343], [0.7190535664558411, -0.49289387464523315, -0.40575075149536133], [0.3842933475971222, 0.5394022464752197, 0.06586454063653946]]], [[[0.2763674557209015, 0.3001745045185089, 0.6149364709854126], [0.48445066809654236, 0.3446197807788849, -0.2822682857513428], [-0.3611917495727539, -0.40383484959602356, -0.6620138883590698]]], [[[0.8925986886024475, 0.4567018151283264, -0.26994404196739197], [0.2495873123407364, 0.19961968064308167, 0.37764042615890503], [-0.43606120347976685, 0.3372039496898651, 0.6062337756156921]]]], "conv1.bias": [-0.08888012170791626, -0.08409745246171951, 0.20845845341682434, 0.2795109748840332], "conv2.weight": [[[[0.13404101133346558, 0.23323513567447662, 0.14540614187717438], [0.4276592433452606, 0.3652128577232361, -0.10059566795825958], [-0.42941364645957947, -0.5012000799179077, -0.14675500988960266]], [[-0.008097372949123383, -0.10925887525081635, -0.16645340621471405], [0.04280414432287216, -0.03454134613275528, -0.15606454014778137], [-0.2513774335384369, -0.33625128865242004, -0.49040156602859497]], [[-0.1913827806711197, -0.03293777257204056, -0.15400126576423645], [-8.007798896869645e-05, 0.19598479568958282, 0.2613864243030548], [0.6178308725357056, 0.6400547623634338, 0.28601837158203125]], [[-0.15446296334266663, -0.31343021988868713, -0.23961418867111206], [0.05402614548802376, 0.04645897075533867, 0.0750209242105484], [0.2500029504299164, 0.049523841589689255, 0.020780546590685844]]], [[[0.018074650317430496, 0.4338596761226654, 0.22695688903331757], [0.27591121196746826, 0.244486004114151, -0.07177652418613434], [0.301930695772171, 0.032898351550102234, -0.4618360996246338]], [[-0.29435622692108154, -0.6582905054092407, 0.053717177361249924], [-0.7658270001411438, -0.7054926156997681, 0.12324340641498566], [-0.3228932023048401, 0.07344033569097519, 0.28316453099250793]], [[-0.044341765344142914, -0.2681204080581665, 0.24281588196754456], [-0.37429532408714294, -0.004059382248669863, 0.20711854100227356], [0.1549105942249298, 0.11437098681926727, -0.004456708673387766]], [[0.050226423889398575, 0.17598648369312286, -0.04564428701996803], [0.28043439984321594, 0.32538163661956787, 0.047040149569511414], [0.5611429810523987, 0.03487567976117134, -0.03338952362537384]]], [[[-0.019551659002900124, 0.11928953975439072, 0.37004905939102173], [-0.11076833307743073, 0.4120771288871765, 0.5386179089546204], [0.07638213038444519, 0.4145788550376892, 0.2351064682006836]], [[-0.18532028794288635, -0.9147493839263916, -0.21257992088794708], [-0.32992371916770935, -0.6344577670097351, -0.15994277596473694], [-0.7907329201698303, -0.6360127925872803, 0.4409480690956116]], [[-0.045941099524497986, -0.31637537479400635, -0.0471886545419693], [0.16004502773284912, -0.6009365320205688, 0.13465704023838043], [-0.4709906280040741, -0.3857787549495697, 0.1074853166937828]], [[-0.00929640606045723, 0.12743684649467468, 0.11240978538990021], [-0.1881912499666214, 0.15093357861042023, -0.0028851148672401905], [-0.3208256661891937, 0.170659139752388, 0.08203735202550888]]], [[[-0.21325939893722534, -0.3951839208602905, -0.1839909553527832], [-0.24091914296150208, -0.2984533905982971, 0.06362591683864594], [0.023430636152625084, 0.03939076140522957, 0.1547859162092209]], [[0.33624914288520813, 0.20312915742397308, -0.09119874238967896], [0.3528139591217041, 0.6131596565246582, 0.5431882739067078], [-0.12833163142204285, 0.4172607660293579, 0.4686078429222107]], [[-0.31911560893058777, -0.3072700500488281, -0.10440555959939957], [-0.14149171113967896, -0.15665483474731445, 0.06943470984697342], [0.15533283352851868, -0.20448368787765503, 0.04478689655661583]], [[0.010757805779576302, -0.3158360421657562, -0.5217293500900269], [0.32706505060195923, 0.5253716707229614, 0.11238875985145569], [0.14214450120925903, 0.33349794149398804, 0.41540536284446716]]], [[[0.1383156180381775, -0.08850274235010147, -0.28144577145576477], [-0.11678384244441986, 0.08017034828662872, 0.05060635879635811], [0.2624497413635254, 0.14287444949150085, 0.05829306319355965]], [[0.03007831983268261, 0.23546084761619568, -0.0867268294095993], [-0.06229555979371071, -0.39406707882881165, -0.18821927905082703], [0.001909573213197291, -0.5995658040046692, -0.2192305326461792]], [[0.24596641957759857, 0.6171912550926208, 0.5251926779747009], [0.22455012798309326, 0.41891974210739136, 0.29226890206336975], [-0.3372957408428192, -0.2443343847990036, 0.21117658913135529]], [[0.10545797646045685, 0.19421273469924927, 0.20927760004997253], [-0.13776087760925293, -0.1920018494129181, 0.022225700318813324], [-0.4414796233177185, -0.2339625358581543, -0.0938485786318779]]], [[[0.4845845401287079, 0.3257003426551819, 0.24032749235630035], [0.047849539667367935, -0.1277446150779724, 0.12058661133050919], [0.1588035225868225, -0.04259029030799866, -0.09526568651199341]], [[-0.007181609980762005, -0.20240916311740875, -0.2018457055091858], [0.26470059156417847, 0.29548561573028564, -0.0734197124838829], [0.21936941146850586, 0.07833459228277206, 0.05272053927183151]], [[-0.30143070220947266, 0.5732313394546509, 0.2935970723628998], [0.10052181035280228, -0.0262620747089386, -0.04792514815926552], [-0.4062107801437378, -0.18577614426612854, 0.28680771589279175]], [[0.005313692148774862, -0.08323520421981812, -0.11071734130382538], [0.11829027533531189, 0.21322761476039886, -0.02437424100935459], [-0.06469377130270004, 0.24595262110233307, 0.3129750192165375]]], [[[-0.06325659900903702, -0.01990693435072899, 0.5031266808509827], [0.46400293707847595, -0.15229813754558563, 0.4969686269760132], [0.17057587206363678, -0.13304276764392853, 0.23852089047431946]], [[0.3602336645126343, 0.45386621356010437, -0.25304797291755676], [-0.041242338716983795, 0.6481612920761108, 0.16236566007137299], [0.14949272572994232, 0.19446198642253876, -0.0591345950961113]], [[-0.23035180568695068, 0.1996852606534958, -0.3399485945701599], [-0.41020703315734863, -0.03175634518265724, -0.5382790565490723], [-0.07880408316850662, -0.026883643120527267, -0.32289230823516846]], [[0.4689224362373352, 0.0905691608786583, -0.015116334892809391], [0.24428407847881317, 0.019034527242183685, -0.3133559226989746], [-0.26143285632133484, -0.41926586627960205, -0.35475966334342957]]], [[[0.017023803666234016, 0.04942686855792999, 0.27280229330062866], [-0.48578858375549316, -0.3763890862464905, 0.14250603318214417], [-0.6414028406143188, -0.4909411370754242, -0.6595677733421326]], [[0.37974265217781067, 0.3426955044269562, 0.10227704048156738], [0.07544133067131042, 0.009379152208566666, -0.18227437138557434], [-0.18701094388961792, -0.4058937132358551, -0.7386108040809631]], [[-0.01847030036151409, -0.06605987250804901, 0.2093634158372879], [-0.09476219862699509, 0.19122397899627686, 0.5741307139396667], [-0.18958814442157745, 0.33145686984062195, 0.5104790925979614]], [[0.3277755379676819, 0.34742459654808044, -0.015593462623655796], [0.35157105326652527, 0.18105565011501312, 0.134363055229187], [0.05850142240524292, 0.05490099638700485, -0.006426047068089247]]]], "conv2.bias": [-0.00368455215357244, -0.4975453019142151, 0.0037777042016386986, -0.2852914333343506, -0.02811708115041256, -0.31893494725227356, -0.3254040777683258, 0.18347279727458954], "fc1.weight": [[-0.036443714052438736, -0.22208185493946075, 0.012295003049075603, 0.004073541611433029, 0.029684461653232574, -0.06397459656000137, -0.10145065933465958, 0.009640571661293507, -0.18084172904491425, -0.05798335745930672, -0.14590154588222504, 0.0004345467023085803, -0.18815763294696808, -0.4256983697414398, 0.06556470692157745, 0.0386522114276886, -0.003711096243932843, -0.05697097256779671, 0.10863874107599258, 0.20035958290100098, -0.0006144724902696908, -0.02360876463353634, 0.05856162682175636, 0.08184809237718582, 0.08379142731428146, -0.056782789528369904, -0.050507865846157074, -0.07336482405662537, -0.1694057285785675, -0.03887980803847313, 0.19015729427337646, 0.06702706217765808, 0.1121608167886734, -0.055616941303014755, 0.12382964789867401, 0.2522856593132019, 0.2291455715894699, 0.0846766009926796, -0.1761714220046997, 0.05789589881896973, 0.24390818178653717, 0.15280774235725403, 0.0006944709457457066, -0.014767174609005451, 0.013509363867342472, 0.04464384540915489, -0.06720861047506332, -0.21738748252391815, -0.12434399873018265, -0.009228382259607315, 0.051354892551898956, -0.07681528478860855, -0.08456536382436752, 0.0502447672188282, 0.20956262946128845, 0.06822217255830765, -0.05900042876601219, -0.040688835084438324, -0.059975042939186096, -0.011571350507438183, 0.08761956542730331, 0.1219373345375061, -0.07790113985538483, -0.0828884169459343, 0.13787326216697693, 0.08713580667972565, 0.02863370068371296, -0.1134895384311676, 0.01296264212578535, 0.19585983455181122, -0.0320676825940609, -0.156993106007576, -0.3699824810028076, -0.1738642007112503, -0.20635855197906494, -0.07497505843639374, -0.04949025809764862, -0.02916853316128254, 0.05772409960627556, 0.0967060774564743, -0.006169704720377922, 0.11190628260374069, 0.012518338859081268, 0.10653416812419891, 0.32832831144332886, 0.034156642854213715, -0.03583608940243721, -0.15845957398414612, -0.007548821158707142, 0.06319940090179443, -0.1704675853252411, -0.0904546007514, -0.0756419226527214, -0.1395639032125473, -0.2640494406223297, -0.026759514585137367, 0.012441572733223438, 0.2287154197692871, -0.05147964134812355, -0.3487681448459625, -0.051898472011089325, -0.2707365155220032, 0.0020567455794662237, 0.06658449023962021, -0.363725870847702, -0.049647875130176544, -0.06475554406642914, -0.1718565672636032, -0.0859939381480217, 0.04486602917313576, 0.08348450809717178, -0.10778145492076874, -0.09899529814720154, 0.07284198701381683, 0.036038000136613846, -0.1353757679462433, -0.15339058637619019, -0.2461850941181183, -0.30409106612205505, 0.13196545839309692, -0.11875281482934952, -0.2589895725250244, -0.08078532665967941, -0.02205430157482624, -0.006029962096363306, -0.13072045147418976, -0.03903591260313988, -0.17670880258083344, -0.004109224304556847, 0.044739529490470886, -0.015886830165982246, -0.001721331849694252, -0.05866384878754616, -0.12219943106174469, 0.14535310864448547, 0.06769553571939468, 0.06718209385871887, -0.008790258318185806, -0.2236444652080536, 0.08894391357898712, 0.13115879893302917, 0.10251646488904953, 0.0393763929605484, -0.15538223087787628, 0.09291908144950867, 0.005168519914150238, -0.014301050454378128, 0.15386129915714264, -0.012580123730003834, -0.23062895238399506, -0.0032043943647295237, -0.3092007637023926, -0.20636628568172455, -0.28959187865257263, -0.2104502171278, -0.04047190025448799, -0.02604387141764164, -0.06473194807767868, 0.07995042949914932, 0.08123573660850525, 0.0984584391117096, 0.129743754863739, 0.25453537702560425, 0.17752714455127716, 0.13562411069869995, 0.02965621091425419, 0.12307535111904144, 0.23574015498161316, -0.015770206227898598, 0.0003041689924430102, 0.16639991104602814, 0.09661554545164108, 0.01443436834961176, -0.5670199394226074, -0.1451297104358673, -0.2936708927154541, -0.29795390367507935, -0.04774050787091255, -0.0879206508398056, -0.31844034790992737, -0.2226850986480713, 0.09179757535457611, 0.024241603910923004, -0.2013923078775406, -0.12230736017227173, -0.5383471846580505, -0.19882623851299286, -0.11020435392856598, -0.25123345851898193, 0.12400445342063904, -0.00764019601047039, 0.02714025229215622, -0.14075937867164612, -0.2720998227596283, -0.03900061175227165, -0.03577069938182831, 0.06105174869298935, 0.15548834204673767, 0.15970051288604736, 0.10591136664152145], [0.1673741489648819, -0.09429609775543213, -0.045248888432979584, 0.09906898438930511, -0.08197454363107681, -0.06934947520494461, -0.010997319594025612, 0.06672289222478867, -0.12939289212226868, -0.010090711526572704, 0.0685248002409935, 0.01534022856503725, 0.13496476411819458, -0.22128799557685852, -0.17522704601287842, 0.11767711490392685, -0.014096791855990887, -0.09815715998411179, -0.27985724806785583, 0.03590122237801552, 0.33030804991722107, 0.0627337396144867, -0.0529002845287323, -0.19954362511634827, 0.32491061091423035, 0.031441569328308105, -0.2085733860731125, 0.3458673357963562, 0.1177527979016304, 0.0980919823050499, -0.006754600442945957, -0.2765533924102783, 0.043553490191698074, 0.09348373860120773, 0.16955460608005524, 0.07229110598564148, -0.114800363779068, 0.2542777359485626, 0.06110115721821785, 0.05182129517197609, -0.35023021697998047, 0.027088617905974388, 0.10916126519441605, -0.1489104926586151, -0.07975389063358307, 0.019390571862459183, -0.013328919187188148, 0.04861808568239212, -0.07611581683158875, -0.4386724829673767, -0.1163586750626564, -0.06500035524368286, 0.13564752042293549, 0.253119558095932, 0.24172614514827728, -0.10171367973089218, -0.1941593587398529, 0.14912118017673492, 0.4623565375804901, 0.325261652469635, 0.018675528466701508, -0.13921476900577545, 0.16966743767261505, 0.35337865352630615, 0.14809827506542206, -0.10117366164922714, -0.01211764756590128, 0.2016102373600006, -0.041254982352256775, -0.22661840915679932, 0.10652677714824677, -0.049519408494234085, 0.045196086168289185, 0.19626791775226593, 0.19048015773296356, 0.17650337517261505, 0.20799504220485687, 0.23011164367198944, -0.04312136396765709, -0.18597649037837982, -0.025490451604127884, -0.05251970514655113, 0.09855462610721588, -0.020009513944387436, -0.19615311920642853, -0.14950062334537506, -0.4616309106349945, 0.0006008576601743698, -0.09398786723613739, -0.3127417266368866, -0.1233028769493103, -0.14742565155029297, -0.12628696858882904, -0.15514284372329712, -0.020967796444892883, 0.07528030872344971, -0.09084344655275345, -0.04323964938521385, 0.20297619700431824, 0.21600614488124847, -0.17692556977272034, -0.21719756722450256, -0.10107847303152084, 0.16729608178138733, -0.35563749074935913, 0.052889883518218994, -0.08636258542537689, -0.13398568332195282, -0.40910011529922485, -0.29630085825920105, 0.07912738621234894, 0.19809535145759583, -0.15810786187648773, -0.12722377479076385, -0.14511583745479584, 0.1903911679983139, -0.09028706699609756, -0.28190359473228455, -0.033509511500597, -0.14674673974514008, 0.37585553526878357, -0.03728451579809189, -0.11318225413560867, -0.07567882537841797, 0.18072573840618134, 0.0696854293346405, 0.13092800974845886, 0.07585277408361435, 0.15307535231113434, -0.01531301997601986, -0.17965291440486908, -0.10300292819738388, -0.03754007816314697, 0.00796232558786869, -0.07717494666576385, -0.020552365109324455, -0.1444084495306015, -0.17756402492523193, 0.07028982788324356, -0.07964856177568436, -0.1885138303041458, -0.07810085266828537, -0.08506951481103897, 0.06597892194986343, -0.1419900357723236, 0.041391197592020035, -0.19773389399051666, -0.16130702197551727, -0.10815698653459549, 0.1645553857088089, -0.1258421093225479, 0.3553919196128845, 0.4055749773979187, 0.2507437765598297, 0.09956646710634232, -0.08875610679388046, -0.08472887426614761, 0.037840813398361206, -0.07096348702907562, -0.1477496474981308, 0.08223941177129745, -0.003661318914964795, 0.08125893026590347, 0.17465168237686157, 0.1094110831618309, 0.06182146444916725, 0.013188298791646957, 0.0018159188330173492, 0.11667151749134064, -0.1359228938817978, 0.09290329366922379, -0.22850069403648376, -0.11147072911262512, -0.1398293673992157, 0.0790397897362709, 0.03956712409853935, -0.12398841232061386, 0.22518080472946167, 0.3772687315940857, -0.1056823879480362, 0.11736166477203369, 0.023570626974105835, -0.03442566469311714, 0.15651926398277283, -0.020570652559399605, 0.08960702270269394, -0.15184447169303894, -0.44515132904052734, 0.12683016061782837, -0.0611068531870842, 0.19398030638694763, -0.05136803537607193, -0.08635207265615463, 0.17266945540905, -0.27037250995635986, -0.01987876370549202, -0.27120333909988403, -0.1455214023590088, 0.015408826991915703, 0.1964220404624939], [0.16499581933021545, 0.09693340212106705, -0.024875659495592117, -0.04961218312382698, -0.19303688406944275, 0.19653300940990448, 0.05258005112409592, 0.08230472356081009, -0.0899653434753418, -0.4437072277069092, -0.011711192317306995, 0.09160976856946945, -0.02841205708682537, -0.09632893651723862, -0.03310970962047577, 0.18180130422115326, -0.04551437497138977, 0.002587292343378067, 0.03282283991575241, 0.12645095586776733, 0.06531988829374313, -0.02969028800725937, -0.028385348618030548, 0.026070868596434593, 0.180976003408432, 0.07340206950902939, 0.038374949246644974, -0.001994136953726411, -0.11832526326179504, -0.06185917928814888, -0.07120433449745178, -0.03479430451989174, -0.1537061184644699, -0.030483486130833626, 0.031287726014852524, -0.13026192784309387, -0.23217736184597015, -0.1932237595319748, 0.08026256412267685, -0.06797190010547638, 0.2258584052324295, 0.19193702936172485, 0.10826718807220459, -0.05701609328389168, -0.09120767563581467, 0.10635651648044586, 0.10111389309167862, -0.06103561818599701, -0.21782799065113068, -0.2926425337791443, -0.053570300340652466, 0.07714346051216125, 0.09167605638504028, -0.25880590081214905, -0.39478185772895813, -0.15074370801448822, -0.18728817999362946, -0.07278938591480255, 0.035964448004961014, 0.10749130696058273, 0.025459256023168564, -0.1307014524936676, -0.012172795832157135, 0.0989944264292717, 0.04811159521341324, 0.1789187639951706, 0.23559843003749847, 0.024957148358225822, 0.09254458546638489, -0.1664624661207199, 0.011296398937702179, 0.023643381893634796, -0.0418914370238781, -0.13284868001937866, -0.02037118189036846, -0.17251594364643097, -0.010063745081424713, 0.10081001371145248, 0.009875049814581871, 0.08920428901910782, -0.1595430225133896, -0.12883786857128143, 0.003555379342287779, 0.06889576464891434, -0.03629223629832268, 0.10611771047115326, -0.13938719034194946, 0.10902933776378632, -0.1000608578324318, -0.3209353983402252, 0.14880317449569702, -0.19329391419887543, 0.05612381547689438, -0.0082078343257308, -0.10437191277742386, -0.17770007252693176, -0.24434176087379456, 0.09718319773674011, 0.12918971478939056, 0.43809249997138977, 0.23018349707126617, 0.3281611502170563, 0.29288560152053833, 0.00896590854972601, -0.12257785350084305, 0.037240903824567795, 0.017634650692343712, 0.08887973427772522, 0.06039418652653694, -0.029158420860767365, 0.11156292259693146, 0.18879948556423187, -0.0010165972635149956, -0.05927892029285431, -0.2073173224925995, 0.12087751924991608, -0.08082536607980728, 0.08862375468015671, 0.029171254485845566, 0.12416930496692657, -0.04503044858574867, -0.05080687999725342, -0.001385614275932312, -0.0027448884211480618, 0.19646361470222473, -0.09782370179891586, -0.20970503985881805, -0.0702611580491066, -0.044898588210344315, 0.14484208822250366, -0.060428421944379807, -0.233474999666214, -0.18913520872592926, -0.07343048602342606, -0.12305375933647156, -0.10144972056150436, -0.13216421008110046, -0.17332398891448975, -0.18809886276721954, 0.046490032225847244, 0.18584920465946198, 0.1259627491235733, 0.11679492145776749, -0.05863692983984947, 0.02422134391963482, 0.18062061071395874, 0.10337052494287491, 0.17810073494911194, 0.020430903881788254, 0.30262911319732666, 0.11692406982183456, -0.2149464339017868, -0.08366552740335464, -0.08430717885494232, 0.14549197256565094, -0.1116381585597992, -0.11262013763189316, -0.042752452194690704, 0.13516052067279816, 0.1121441051363945, -0.2487569898366928, -0.3061647415161133, -0.08052080869674683, 0.04489130526781082, -0.03858921304345131, -0.010585038922727108, -0.06499359756708145, -0.08019310981035233, -0.12346098572015762, -0.24717476963996887, 0.20243987441062927, 0.16517426073551178, -0.03564450517296791, -0.22034835815429688, -0.06393115967512131, 0.2040199488401413, -0.007145956624299288, -0.005125861149281263, -0.3034754693508148, -0.048157453536987305, 0.09869402647018433, 0.047160450369119644, 0.18181824684143066, -0.1359100639820099, -0.32872912287712097, 0.14417576789855957, -0.026451991870999336, -0.04347653314471245, -0.03771108388900757, -0.05902149900794029, -0.10640458762645721, 0.13107071816921234, 0.011641395278275013, 0.025399591773748398, 0.25507619976997375, 0.07098446786403656, 0.1623164713382721, 0.096802718937397, 0.03603600710630417, 0.25056660175323486], [0.1355808675289154, 0.09949246793985367, 0.031924474984407425, 0.049289803951978683, -0.06319992989301682, 0.12770621478557587, 0.12415436655282974, 0.08719735592603683, 0.04596608877182007, -0.18447811901569366, 0.04680841788649559, 0.14189864695072174, 0.14072951674461365, 0.33315354585647583, -0.08131872862577438, -0.26282426714897156, 0.0010511933360248804, 0.0476728118956089, 0.05050129070878029, -0.24659554660320282, -0.04028182849287987, -0.00039056676905602217, 0.13032090663909912, 0.15564091503620148, -0.10382983088493347, 0.02576802484691143, -0.10299424827098846, -0.16690044105052948, 0.05545981600880623, -0.0670228824019432, -0.06330142170190811, -0.10670403391122818, -0.04582514986395836, 0.019118838012218475, 0.16347689926624298, -0.13747557997703552, 0.008321831934154034, 0.24373997747898102, 0.12138655036687851, -0.033813681453466415, -0.351126104593277, -0.39740651845932007, -0.0625053197145462, 0.07912182062864304, -0.0842941477894783, -0.11414419859647751, -0.19544540345668793, 0.027879128232598305, 0.2237519472837448, 0.10780224949121475, -0.07293299585580826, -0.135105162858963, -0.245934396982193, -0.49169060587882996, -0.6332020163536072, -0.05952336639165878, -0.08679602295160294, -0.15739741921424866, -0.045831099152565, 0.01984836347401142, -0.1275586187839508, -0.08847954869270325, 0.04564344510436058, -0.13402651250362396, -0.4778125286102295, -0.21019791066646576, -0.30244898796081543, -0.1830236166715622, -0.22548045217990875, -0.1498265266418457, -0.08348413556814194, -0.12032653391361237, 0.04664590582251549, 0.0930275246500969, 0.03382967412471771, 0.10145637392997742, -0.0037790294736623764, 0.13184836506843567, 0.12735676765441895, 0.1847320795059204, -0.251056432723999, -0.171934574842453, -0.08935951441526413, -0.02318066731095314, -0.09282991290092468, -0.1317087560892105, -0.4000445306301117, -0.12471799552440643, 0.029492270201444626, -0.027515463531017303, 0.2055569291114807, 0.05223819985985756, 0.21727104485034943, 0.24755361676216125, 0.08835335075855255, 0.2954012155532837, 0.22324302792549133, 0.017390135675668716, -0.00983487255871296, -0.16579347848892212, -0.06212417408823967, 0.03169325366616249, 0.15613731741905212, 0.10934226214885712, -0.076227106153965, 0.035495102405548096, 0.12826019525527954, 0.27828967571258545, 0.02660370245575905, -0.17142514884471893, 0.09861926734447479, 0.15866127610206604, 0.1450895369052887, -0.03377816453576088, 0.07106496393680573, -0.24225687980651855, -0.05959359183907509, 0.040704768151044846, 0.20342537760734558, -0.12314173579216003, 0.01360737718641758, -0.0014069483149796724, 0.12475321441888809, 0.18152549862861633, -0.11649034917354584, 0.12343239039182663, 0.02830999717116356, 0.11950809508562088, 0.1229739859700203, -0.005799116566777229, -0.05275599658489227, -0.17765463888645172, -0.05660020187497139, 0.05336281657218933, -0.06558968871831894, -0.14273101091384888, -0.1404627561569214, 0.10353344678878784, 0.12764596939086914, 0.028458690270781517, -0.02862146683037281, -0.23372448980808258, 0.017134036868810654, 0.04065452888607979, -0.10663414001464844, 0.010760136879980564, 0.014911144971847534, -0.13115310668945312, -0.06489337235689163, -0.023764150217175484, -0.08028745651245117, -0.08750424534082413, -0.01983517035841942, -0.03031044267117977, 0.11335819959640503, -0.06815549731254578, -0.21627070009708405, -0.1749861091375351, -0.015699749812483788, -0.026367824524641037, 0.015644606202840805, -0.1243060752749443, -0.4373947083950043, -0.15378759801387787, -0.02182414010167122, -0.15894794464111328, -0.09012913703918457, -0.24901854991912842, 0.02833898738026619, 0.10684733092784882, -0.025460751727223396, -0.25730907917022705, -0.287744402885437, 0.06487720459699631, -0.0014518743846565485, 0.07477085292339325, 0.09396190941333771, -0.21647676825523376, 0.0033204113133251667, 0.04113715887069702, 0.13237261772155762, -0.0023943486157804728, -0.008160751312971115, -0.07271979749202728, -0.0679481104016304, 0.12536866962909698, -0.02380824089050293, 0.0777595043182373, 0.0653427317738533, -0.09416963160037994, -0.0048761009238660336, 0.0718589797616005, 0.2428089827299118, -0.14123232662677765, -0.12219423055648804, -0.06257189810276031, 0.04503250494599342, 0.08049912750720978, -0.10444390773773193, -0.2842521667480469], [-0.18599897623062134, -0.14385586977005005, -0.42703038454055786, -0.25049328804016113, -0.05856975167989731, -0.15167377889156342, -0.024598276242613792, -0.20993207395076752, -0.11155705899000168, 0.09968031942844391, 0.025114428251981735, 0.07683046907186508, 0.07442788779735565, -0.10972611606121063, 0.1098993718624115, 0.1660379320383072, -0.019499706104397774, 0.052076008170843124, 0.1183304712176323, 0.0439089797437191, 0.09456353634595871, -0.03083900548517704, -0.14745260775089264, -0.27023497223854065, 0.07159300893545151, -0.0019452343694865704, 0.0039458684623241425, 0.05102309584617615, 0.05048378184437752, 0.17431142926216125, -0.18402904272079468, 0.11399979889392853, 0.11472164839506149, 0.17978829145431519, 0.058871079236269, 0.056287918239831924, 0.09205728769302368, -0.12364422529935837, 0.032074954360723495, -0.09725407510995865, 0.0127817802131176, -0.034946661442518234, -0.20929394662380219, 0.0859699696302414, -0.10761915147304535, 0.09543582051992416, 0.1259840428829193, 0.09883276373147964, 0.04139847680926323, 0.2993604242801666, -0.030187707394361496, 0.09003541618585587, 0.09473386406898499, 0.28604888916015625, 0.27014586329460144, -0.0811714231967926, 0.06728271394968033, 0.14476332068443298, 0.16932444274425507, 0.2451726347208023, 0.13418038189411163, 0.08948118984699249, -0.21057356894016266, 0.13237982988357544, 0.04939921200275421, 0.002124606631696224, 0.0763542503118515, 0.0009295115014538169, -0.0735737681388855, 0.06031854450702667, -0.01000854279845953, 0.023179953917860985, 0.10978477448225021, 0.05319785326719284, 0.18975324928760529, 0.13646145164966583, 0.18123739957809448, -0.02917543612420559, -0.13493503630161285, -0.21284686028957367, 0.09490271657705307, 0.18406789004802704, -0.17068764567375183, -0.16358132660388947, -0.23436641693115234, 0.16678909957408905, 0.0704694613814354, 0.06118365004658699, -0.17302213609218597, -0.08227139711380005, -0.12187179177999496, 0.18134787678718567, 0.06000896170735359, -0.1272602528333664, -0.0016338631976395845, -0.2583038806915283, -0.06980273872613907, -0.22880078852176666, 0.015036433935165405, 0.14397935569286346, 0.11582060903310776, -0.04127935320138931, -0.04172315448522568, 0.15494421124458313, 0.14018641412258148, 0.10251405090093613, -0.10582629591226578, -0.29285135865211487, -0.195450097322464, -0.22244511544704437, -0.2528435289859772, -0.11702681332826614, -0.12419379502534866, -0.29901832342147827, -0.02048446051776409, 0.027698595076799393, -0.04605389013886452, 0.05898988991975784, -0.05410689115524292, 0.06859131902456284, 0.011388116516172886, -0.0063315569423139095, -0.017922116443514824, 0.09201899915933609, -0.0867583230137825, 0.03737152740359306, -0.06688835471868515, -0.008735987357795238, 0.04286331683397293, 0.007231159135699272, 0.15930496156215668, 0.13073168694972992, -0.10807937383651733, 0.0133963106200099, 0.16391855478286743, 0.03352402523159981, 0.05990171805024147, 0.09245340526103973, -0.03527858480811119, 0.058102186769247055, -0.0420273095369339, -0.003967728465795517, -0.18226704001426697, 0.04073149338364601, 0.07886110246181488, -0.061548080295324326, -0.22247177362442017, -0.19570067524909973, 0.022727468982338905, 0.15407587587833405, 0.029908930882811546, 0.1851099729537964, 0.4522915184497833, 0.4375256896018982, 0.003178937127813697, 0.042677320539951324, 0.33011582493782043, 0.2462252676486969, 0.12184732407331467, 0.06386510282754898, -0.14549799263477325, -3.281625686213374e-05, -0.02313235215842724, 0.046657808125019073, 0.006078340113162994, -0.06795476377010345, -0.06642985343933105, -0.19779494404792786, -0.05319797247648239, -0.06315362453460693, -0.035820066928863525, -0.00045605297782458365, 0.07671090960502625, 0.025013620033860207, 0.1216239184141159, -0.2946217656135559, -0.17113183438777924, -0.845336377620697, -0.2720598876476288, -0.1579342484474182, -0.10926372557878494, -0.07621816545724869, -0.3148074746131897, -0.28864946961402893, -0.06574883311986923, 0.07315167784690857, 0.13684749603271484, 0.07586776465177536, -0.10013774037361145, 0.009634168818593025, 0.09429696947336197, 0.0033166995272040367, 0.07638771831989288, 0.17621572315692902, 0.08927633613348007, 0.02560991235077381, -0.2111557573080063, -0.19670945405960083, -0.166957288980484, 0.006393618881702423], [-0.10546397417783737, -0.07241769134998322, 0.09159380942583084, 0.17574435472488403, 0.15750561654567719, -0.10845085233449936, -0.14109225571155548, -0.04982946440577507, 0.13301339745521545, 0.41457343101501465, 0.1500857174396515, 0.06801529973745346, 0.08768315613269806, -0.01591460220515728, -0.16488967835903168, 0.11986654996871948, 0.016369452700018883, 0.02447795495390892, -0.08914472907781601, -0.2160300314426422, 0.06184322014451027, 0.15303748846054077, 0.22206661105155945, -0.011814177967607975, -0.029160678386688232, -0.08715936541557312, -0.06954837590456009, -0.09444598108530045, -0.03597436472773552, -0.27786555886268616, 0.01529690157622099, 0.02198079787194729, -0.03272751718759537, -0.2393827736377716, -0.42600491642951965, -0.21061676740646362, -0.04242576286196709, -0.1840263456106186, -0.36905884742736816, -0.43395084142684937, -0.2638033330440521, -0.24278287589550018, -0.10875797271728516, -0.05498650297522545, 0.03124876506626606, -0.05752578005194664, -0.05186935514211655, 0.11234260350465775, 0.0962052270770073, -0.013215214014053345, 0.031518448144197464, 0.021116511896252632, 0.003459404921159148, -0.019136860966682434, 0.12618787586688995, -0.04512109234929085, -0.0017479807138442993, 0.036615438759326935, -0.042496152222156525, -0.1966085284948349, -0.10310643166303635, 0.025578562170267105, 0.07914534211158752, 0.03415582329034805, -0.5241965651512146, -0.1817430704832077, -0.2113567292690277, -0.24812112748622894, -0.009021038189530373, -0.08077888190746307, -0.0704764574766159, -0.11393877118825912, -0.0017667029751464725, 0.11746832728385925, 0.2977809011936188, 0.0046157632023096085, 0.10083608329296112, -0.1884400099515915, -0.1726287305355072, -0.2963787317276001, -0.14362171292304993, 0.05683765187859535, -0.06351069360971451, -0.1386812925338745, -0.08658740669488907, 0.00811946764588356, 0.12374856323003769, 0.1297318935394287, 0.17957545816898346, 0.15901917219161987, 0.2717823088169098, 0.06181861460208893, 0.1644362062215805, 0.09495776891708374, 0.07869117707014084, 0.09593772888183594, 0.13223153352737427, 0.1128837913274765, -0.1644400656223297, -0.1647026240825653, -0.04343603178858757, -0.34855106472969055, -0.2699839472770691, 0.003926393575966358, 0.2707883417606354, -0.12636293470859528, -0.11899007856845856, -0.06499326974153519, -0.05159599334001541, 0.21770016849040985, -0.027790959924459457, -0.026379380375146866, -0.013673672452569008, 0.0859026089310646, 0.23322418332099915, 0.07433002442121506, 0.11440205574035645, 0.08843105286359787, -0.003375089494511485, -0.10452182590961456, 0.2756664454936981, 0.2242719829082489, 0.0029389208648353815, -0.0951743796467781, -0.00890767015516758, 0.028069352731108665, 0.039254650473594666, 0.017985135316848755, -0.017493300139904022, -0.1547977477312088, -0.19027461111545563, 0.02248583547770977, 0.11158914119005203, -0.1083437129855156, -0.07460010796785355, -0.3681637644767761, -0.053445372730493546, 0.04176224768161774, -0.17182305455207825, -0.15091131627559662, -0.14504486322402954, -0.051632896065711975, -0.01481859851628542, -0.11802465468645096, -0.08284889906644821, -0.0451505146920681, 0.1195041835308075, -0.060530249029397964, -0.0884915217757225, -0.12544794380664825, 0.03146883845329285, 0.028403570875525475, -0.03152177482843399, -0.10826347023248672, 0.012187622487545013, 0.11995263397693634, 0.09824885427951813, 0.1294131875038147, -0.2643633484840393, -0.3062485158443451, 0.06747058033943176, 0.15267282724380493, -0.01604369282722473, -0.12738636136054993, 0.08115220069885254, -0.10822177678346634, -0.09393198043107986, 0.12100503593683243, 0.033422622829675674, -0.07079166173934937, -0.0801638662815094, -0.13790173828601837, -0.09232866019010544, 0.014484358951449394, -0.006481015123426914, -0.575572669506073, -0.277777761220932, 0.236309215426445, 0.15768247842788696, 0.14617186784744263, -0.25534674525260925, 0.04655153304338455, 0.2973226308822632, 0.3300551176071167, 0.37174421548843384, 0.15052063763141632, 0.18000352382659912, 0.07346750795841217, -0.008607577532529831, 0.38559630513191223, 0.15163813531398773, 0.18728840351104736, 0.05145351588726044, -0.036580681800842285, -0.1028781458735466, 0.02137233503162861, -0.033993516117334366, 0.04351511970162392, -0.04370510205626488, -0.12455011904239655], [0.008441178128123283, -0.11751624196767807, -0.10686522722244263, 0.10371462255716324, 0.019147660583257675, -0.1989496946334839, -0.11899568140506744, -0.17877593636512756, 0.04643847793340683, -0.07816293835639954, -0.12541398406028748, -0.14148728549480438, 0.01949978992342949, 0.09896755963563919, -0.030217207968235016, 0.11350381374359131, -0.15862305462360382, -0.01883709244430065, 0.09230974316596985, 0.04262293130159378, -0.25815054774284363, -0.06729345768690109, 0.03176072612404823, 0.14323827624320984, -0.01306136790663004, 0.23289969563484192, 0.1401044875383377, 0.1883716583251953, 0.027346763759851456, 0.03524542599916458, 0.13157860934734344, 0.1473734974861145, 0.1204865425825119, -0.19323426485061646, -0.11452905088663101, 0.24871647357940674, 0.2352050095796585, 0.054045092314481735, -0.2612464129924774, -0.04515187814831734, 0.09393034875392914, 0.06524772197008133, 0.08164273202419281, -0.05356039106845856, -0.04754950478672981, -0.18852324783802032, -0.11134190112352371, -0.1504233479499817, -0.13392604887485504, -0.06391177326440811, 0.1904735416173935, 0.13041509687900543, 0.12012442201375961, 0.1623860001564026, 0.1304536610841751, 0.17093536257743835, 0.05400243401527405, 0.1272744983434677, 0.14333626627922058, -0.19565349817276, 0.17916974425315857, 0.12553279101848602, 0.07022792100906372, -0.11771714687347412, -0.1853056699037552, 0.008454120717942715, 0.13443061709403992, -0.023521212860941887, -0.11913908272981644, -0.060635510832071304, -0.1172083169221878, -0.19098560512065887, -0.33619484305381775, -0.39476045966148376, -0.4175572991371155, 0.06004355102777481, 0.051146846264600754, -0.2735998034477234, -0.21804748475551605, -0.16396525502204895, -0.028293540701270103, 0.022378724068403244, -0.30975034832954407, -0.45902517437934875, 0.030992014333605766, 0.008465539664030075, 0.00316591071896255, -0.0037522963248193264, 0.052993156015872955, 0.3072833716869354, -0.02432023175060749, -0.044467490166425705, 0.03674938157200813, 0.137112557888031, 0.019303930923342705, -0.4586516320705414, -0.011921531520783901, 0.041379984468221664, -0.0010324626928195357, -0.07070913165807724, -0.01687268167734146, -0.07336580753326416, -0.08444204926490784, -0.12576566636562347, 0.14944666624069214, -0.06814809888601303, -0.32254520058631897, -0.2520596981048584, 0.027375677600502968, 0.07063108682632446, -0.2102987915277481, -0.3206157684326172, -0.1790921539068222, 0.14319783449172974, 0.13594651222229004, -0.16578982770442963, -0.43970945477485657, -0.13165169954299927, 0.00797196663916111, 0.1457328051328659, -0.060661494731903076, -0.07914146035909653, -0.08007921278476715, 0.12493725121021271, -0.05417947471141815, 0.10296068340539932, 0.20546357333660126, -0.021693628281354904, -0.1300511509180069, -0.06718848645687103, 0.012853891588747501, 0.03316010907292366, -0.06645461916923523, -0.21875174343585968, -0.2111552655696869, 0.0894436240196228, 0.11939255148172379, 0.06985814869403839, -0.06452027708292007, -0.08470553904771805, 0.027782049030065536, 0.06869710981845856, 0.07009445130825043, 0.06986449658870697, 0.13060997426509857, -0.1579045057296753, 0.03573017194867134, 0.16647234559059143, 0.044018395245075226, 0.014477944001555443, 0.22242103517055511, 0.3380902111530304, 0.3096984624862671, -0.0016160295344889164, -0.03703319653868675, 0.2434038668870926, 0.11552461981773376, -0.15260891616344452, -0.3114069104194641, -0.34988993406295776, 0.23069879412651062, 0.053402140736579895, -0.2622779607772827, -0.3764987885951996, -0.11680817604064941, 0.057931188493967056, 0.18662521243095398, 0.16491781175136566, 0.11148581653833389, 0.1588008552789688, 0.03874233365058899, 0.10792027413845062, 0.015253119170665741, 0.060560643672943115, 0.0028629715088754892, -0.2236294150352478, 0.011993472464382648, -0.08133844286203384, 0.004146326333284378, 0.18373827636241913, -0.3901064395904541, -0.3210870623588562, -0.0677717849612236, -0.021526942029595375, -0.06488501280546188, -0.633873701095581, -0.4440969228744507, -0.06518527120351791, -0.2485080063343048, -0.07872676849365234, -0.1620880514383316, -0.3038119077682495, 0.0557209812104702, 0.1346960961818695, 0.08346621692180634, -0.010309017263352871, 0.048609185963869095, 0.07103506475687027, 0.2180367112159729, 0.02271660976111889], [0.08869759738445282, 0.009082067757844925, 0.03999382257461548, -0.1631016880273819, -0.03933064639568329, -0.010287550278007984, 0.031109556555747986, 0.2857905328273773, 0.04353157430887222, -0.046797070652246475, 0.0808258056640625, 0.04640401899814606, -0.0013551769079640508, -0.056287460029125214, 0.03521149605512619, -0.042750053107738495, 0.11660004407167435, -0.009730516001582146, 0.08427557349205017, 0.10351452231407166, -0.0925150215625763, -0.09883668273687363, -0.20429947972297668, -0.4940086305141449, -0.49293556809425354, -0.23690810799598694, -0.11379974335432053, -0.12379015982151031, 0.036227695643901825, -0.12135367095470428, -0.1811109185218811, -0.09427706152200699, -0.047390103340148926, 0.1784951239824295, 0.2502848505973816, -0.17120520770549774, -0.10777273774147034, 0.06579697877168655, 0.0008418194483965635, -0.01870407722890377, 0.044300273060798645, 0.052922770380973816, 0.0034034422133117914, 0.15423227846622467, 0.15880301594734192, 0.10314315557479858, 0.1818554550409317, 0.006125563755631447, 0.004230088088661432, 0.044437941163778305, -0.19788888096809387, -0.08130869269371033, -0.2844991981983185, -0.5324879884719849, -0.2575894594192505, -0.17109987139701843, -0.19039398431777954, -0.051078587770462036, 0.16581042110919952, 0.04488413780927658, -0.08996041119098663, 0.03890940174460411, 0.1313980519771576, 0.28535187244415283, -0.0296351108700037, 0.094757579267025, -0.041082318872213364, 0.04752471297979355, 0.2397376298904419, 0.6459754705429077, 0.15425609052181244, 0.06899744272232056, 0.15954473614692688, 0.35404911637306213, -0.1808730512857437, 0.03805369883775711, 0.03640495240688324, -0.05471528321504593, -0.05518728494644165, -0.15693509578704834, 0.384868323802948, 0.3409847319126129, 0.26063621044158936, 0.03917456045746803, 0.04998977854847908, -0.21567033231258392, -0.0046886270865798, -0.06711767613887787, -0.10560906678438187, -0.12884171307086945, -0.4870770275592804, -0.12546579539775848, -0.09677527099847794, -0.13496695458889008, 0.01198041345924139, -0.1280009001493454, -0.4466308653354645, -0.2757554054260254, -0.07781659066677094, -0.16342012584209442, -0.050642453134059906, -0.06203814595937729, -0.38265517354011536, -0.3921613395214081, -0.2157191038131714, 0.046337585896253586, 0.10976181924343109, 0.2523079216480255, 0.21448709070682526, -0.08525732159614563, -0.08643868565559387, 0.11265502125024796, 0.13526436686515808, 0.04446382448077202, -0.08900978416204453, 0.1189136952161789, 0.3214016556739807, -0.1413615643978119, -0.22744961082935333, 0.11420520395040512, 0.03456452488899231, 0.07730396836996078, 0.026391858235001564, -0.019167402759194374, -0.0477151945233345, 0.06416101008653641, 0.057736895978450775, 0.0640539601445198, -0.1003422811627388, -0.1137787476181984, 0.017675695940852165, 0.05648460239171982, -0.21196267008781433, -0.02789236046373844, -0.002972912974655628, -0.024188559502363205, -0.2930678427219391, -0.3074430525302887, 0.0973573550581932, 0.011572841554880142, 0.007597643882036209, 0.10545609891414642, -0.259542316198349, -0.006513357628136873, 0.05624481290578842, 0.03866569697856903, -0.07091738283634186, -0.21122044324874878, 0.15823563933372498, -0.11496546864509583, -0.1567828357219696, -0.023289158940315247, -0.17967845499515533, 0.12293583899736404, 0.02856220304965973, 0.04331053048372269, 0.18111737072467804, 0.020932601764798164, 0.07476790249347687, 0.030127383768558502, 0.04776742309331894, -0.08728766441345215, 0.26704567670822144, 0.17387045919895172, -0.058486901223659515, 0.01809334009885788, -0.07407596707344055, -0.04081470146775246, -0.19516263902187347, -0.005634302739053965, -0.08017618954181671, 0.02317953296005726, 0.20519180595874786, 0.01766587421298027, 0.10993636399507523, 0.34443700313568115, 0.45242470502853394, 0.3186976909637451, -0.029276389628648758, -0.04317799210548401, 0.07996860891580582, 0.2137511819601059, 0.12081228196620941, 0.17306803166866302, 0.1352033019065857, 0.057739537209272385, 0.08507294952869415, -0.22875003516674042, 0.1837664395570755, 0.05949560925364494, 0.036651860922575, -0.27586764097213745, -0.40994954109191895, 0.14158877730369568, 0.13679690659046173, -0.23236480355262756, -0.29368263483047485, -0.2060946524143219, 0.050901275128126144, -0.05036747828125954], [-0.17854075133800507, 0.11120112240314484, 0.0285820122808218, 0.03618448227643967, 0.08691354840993881, -0.05325355380773544, 0.009239597246050835, -0.05078721418976784, -0.022442122921347618, 0.06904436647891998, -0.0934457927942276, -0.18709895014762878, -0.2774012088775635, 0.1253592073917389, 0.2259555459022522, -0.12480402737855911, -0.03750205785036087, 0.09004027396440506, -0.10730542242527008, 0.14299769699573517, 0.029869435355067253, -0.042781081050634384, -0.07543911784887314, 0.20898476243019104, 0.08356749266386032, 0.14270159602165222, 0.006421930156648159, 0.08640055358409882, -0.030834631994366646, 0.03269379958510399, 0.1613527238368988, 0.0413217730820179, -0.02368141897022724, 0.004784033168107271, -0.1410398781299591, -0.12816941738128662, -0.034285351634025574, -0.054523538798093796, 0.06507456302642822, 0.12719717621803284, 0.18977199494838715, 0.09255779534578323, 0.11359810084104538, -0.0777117982506752, -0.1616474837064743, 0.13886012136936188, -0.03104519657790661, -0.13978862762451172, -0.08302310854196548, -0.015391974709928036, 0.09195544570684433, -0.03289071470499039, -0.01325440127402544, -0.12892431020736694, -0.058822087943553925, 0.10154072940349579, 0.008775150403380394, -0.2582210898399353, -0.3537345826625824, -0.09525150805711746, -0.01611163653433323, -0.2125721126794815, -0.152894988656044, -0.1852584034204483, 0.013038605451583862, 0.18151909112930298, 0.15366481244564056, -0.027058696374297142, -0.2346695065498352, -0.32704266905784607, 0.030506137758493423, -0.002767440164461732, -0.1668936163187027, -0.33931881189346313, -0.13885249197483063, 0.03546114265918732, -0.04580388218164444, -0.03466670587658882, -0.02103782631456852, 0.11563447117805481, 0.012811695225536823, -0.025715041905641556, 0.17262330651283264, -0.050980761647224426, -0.029095984995365143, 0.01037825271487236, 0.29093143343925476, 0.21750754117965698, -0.039277710020542145, -0.13466009497642517, 0.019252510741353035, -0.0781085342168808, -0.009980647824704647, 0.1142873540520668, 0.13874240219593048, 0.005664148833602667, -0.08590898662805557, -0.015984563156962395, -0.034207332879304886, -0.027719294652342796, -0.10277920216321945, -0.06375627219676971, -0.05803348124027252, -0.1849212646484375, 0.1173476129770279, 0.15032663941383362, -0.020607151091098785, -0.04244343563914299, 0.025895856320858, 0.008135626092553139, 0.06716757267713547, -0.18177524209022522, -0.022220909595489502, 0.02651234157383442, 0.10178747773170471, 0.31391724944114685, -0.006905942223966122, 0.0013347737258300185, 0.1355551779270172, 0.048937950283288956, -0.11709041893482208, -0.3387373387813568, -0.2279765009880066, -0.05924057960510254, -0.027627434581518173, 0.05080435052514076, 0.01008168887346983, 0.07354993373155594, 0.04775198921561241, 0.16730841994285583, 0.05315379425883293, 0.12649859488010406, 0.13934190571308136, -0.018601618707180023, 0.10258281975984573, 0.04597725719213486, 0.15964461863040924, 0.08193449676036835, 0.1644841432571411, 0.1929786056280136, 0.008686847984790802, -0.04736175760626793, 0.2006959766149521, 0.00999333243817091, 0.18582847714424133, -0.006217594724148512, 0.1981409788131714, 0.18184272944927216, 0.009702391922473907, 0.10096870362758636, 0.0268209520727396, 0.052157916128635406, -0.34627819061279297, 0.02663150243461132, -0.052860748022794724, -0.0682716965675354, -0.24072256684303284, -0.12741822004318237, 0.01997041329741478, 0.15556195378303528, -0.05966653674840927, -0.044143494218587875, 0.06143041327595711, 0.014291024766862392, -0.11007942259311676, 0.015673920512199402, 0.012515834532678127, -0.008952776901423931, 0.03831370174884796, 0.08998582512140274, -0.07665398716926575, 0.28662216663360596, 0.13744790852069855, 0.2378377765417099, 0.0497564859688282, -0.3928007185459137, -0.16303230822086334, -0.13943350315093994, -0.20807726681232452, 0.18877658247947693, -0.12196152657270432, -0.21215488016605377, -0.15793192386627197, -0.01258808933198452, -0.11888342350721359, 0.050426434725522995, -0.13144555687904358, -0.08462689816951752, 0.17650148272514343, -0.10772675275802612, -0.11037418246269226, -0.2194349318742752, -0.06077151373028755, -0.12065529078245163, -0.3036302924156189, -0.06884972751140594, 0.00947155337780714, -0.0016592941246926785, -0.14470143616199493, -0.17746521532535553], [-0.08143772929906845, 0.24376818537712097, 0.000469798018457368, -0.10786288231611252, -0.04477948695421219, 0.10263726860284805, 0.024311460554599762, 0.034565046429634094, 0.045124299824237823, -0.11434201896190643, -0.06847407668828964, -0.11296805739402771, 0.13284793496131897, -0.017381297424435616, -0.07983280718326569, -0.12316855788230896, 0.030671991407871246, 0.14747753739356995, 0.005839641205966473, -0.24076592922210693, -0.11539751291275024, 0.05349714308977127, -0.02620605006814003, -0.28368091583251953, -0.22747081518173218, -0.32432493567466736, 0.02752368152141571, -0.16175496578216553, -0.1402502954006195, 0.11370853334665298, 0.19085337221622467, 0.1574641466140747, 0.011380912736058235, 0.05170997977256775, 0.01530481781810522, 0.13220897316932678, -0.04984205588698387, -0.12982413172721863, 0.18733735382556915, 0.21449783444404602, -0.1923205554485321, -0.29486891627311707, -0.17985832691192627, 0.12938182055950165, 0.1648954451084137, -0.14130806922912598, -0.08236419409513474, 0.10495459288358688, 0.0026627450715750456, -0.08736014366149902, -0.02949788235127926, -0.06698210537433624, 0.00823164638131857, -0.14582325518131256, -0.45288801193237305, 0.1052526906132698, 0.1954973340034485, -0.0513843335211277, -0.15905378758907318, -0.29539695382118225, 0.01746216043829918, -0.014336977154016495, -0.20847280323505402, -0.13608358800411224, 0.05441791191697121, -0.13805869221687317, -0.19972024857997894, -0.050009630620479584, -0.037979789078235626, -0.09173598140478134, 0.10485781729221344, 0.14466431736946106, 0.09301692247390747, 0.04282373562455177, 0.01329371053725481, -0.13237841427326202, -0.3061521053314209, -0.010376832447946072, 0.05407647043466568, 0.06597693264484406, -0.07963256537914276, -0.07766923308372498, 0.0030378440860658884, 0.04361709952354431, 0.17299263179302216, 0.0244380421936512, 0.08249583095312119, -0.1092759296298027, 0.04535236582159996, -0.046320077031850815, 0.005375166889280081, 0.11824961006641388, -0.0815303772687912, -0.1937035620212555, -0.2483418881893158, 0.10891854017972946, 0.04902445524930954, -0.12479545176029205, -0.22930395603179932, 0.05021565780043602, 0.08587048947811127, 0.06793253123760223, 0.24739588797092438, -0.20339848101139069, -0.3460775315761566, 0.05856556072831154, -0.028840262442827225, 0.030925676226615906, 0.10264891386032104, 0.10158579051494598, 0.007350851781666279, -0.23520049452781677, 0.1515192687511444, -0.15882891416549683, -0.1385730504989624, -0.19960317015647888, -0.13596832752227783, 0.1904095560312271, -0.0015829724725335836, -0.35797643661499023, -0.10956015437841415, 0.32316267490386963, 0.08996263146400452, -0.08446714282035828, -0.47444403171539307, -0.058133915066719055, -0.13303016126155853, -0.033739108592271805, -0.024834245443344116, 0.015649309381842613, 0.0809343159198761, 0.14964808523654938, 0.2733165919780731, 0.24234655499458313, 0.07292825728654861, 0.22682249546051025, 0.13433770835399628, 0.21721774339675903, 0.05631176009774208, -0.10838408023118973, -0.046886857599020004, -0.04866368696093559, -0.06372132152318954, 0.06094137579202652, -0.13111406564712524, -0.23016901314258575, -0.13667939603328705, -0.07798633724451065, 0.04223136231303215, -0.08489475399255753, 0.03498133271932602, -0.34699681401252747, -0.5851277112960815, -0.4285196363925934, -0.23154719173908234, -0.09298410266637802, -0.069101482629776, -0.10253185778856277, 0.022293362766504288, -0.03801963850855827, -0.02166859060525894, 0.1206236481666565, 0.00010325077164452523, 0.07981614768505096, -0.04238304868340492, 0.0698445662856102, -0.07602965086698532, -0.05229257792234421, 0.07072263956069946, 0.012505780905485153, -0.001996541628614068, -0.16335804760456085, 0.13077539205551147, -0.031088538467884064, 0.04281101003289223, -0.35852137207984924, -0.2057281732559204, -0.034803759306669235, 0.03584849834442139, -0.1990831196308136, -0.16760754585266113, -0.023518318310379982, -0.05475301668047905, 0.029431961476802826, -0.051018793135881424, -0.21282339096069336, 0.18060192465782166, 0.3207635283470154, -0.005005671642720699, -0.06447833776473999, -0.009007809683680534, 0.1411377489566803, 0.2494451403617859, 0.017303969711065292, -0.11807066947221756, -0.04782602936029434, 0.05579669028520584, -0.035199180245399475, 0.009850955568253994, -0.2912119925022125]], "fc1.bias": [0.1459915041923523, 0.3283824622631073, 0.06369911879301071, 0.028010746464133263, -0.17023423314094543, 0.23331505060195923, -0.03180260583758354, 0.1296021044254303, -0.27549299597740173, -0.028228985145688057]}